digraph Tree {
node [shape=box, style="filled, rounded", color="black", fontname=helvetica] ;
edge [fontname=helvetica] ;
0 [label="X[22] <= 0.5\ngini = 0.285\nsamples = 13903\nvalue = [2397, 11506]", fillcolor="#62b1ea"] ;
1 [label="X[21] <= 0.5\ngini = 0.238\nsamples = 13340\nvalue = [1840, 11500]", fillcolor="#59ade9"] ;
0 -> 1 [labeldistance=2.5, labelangle=45, headlabel="True"] ;
2 [label="X[20] <= 0.5\ngini = 0.194\nsamples = 12780\nvalue = [1395, 11385]", fillcolor="#51a9e8"] ;
1 -> 2 ;
3 [label="X[23] <= 0.5\ngini = 0.149\nsamples = 12214\nvalue = [990, 11224]", fillcolor="#4aa6e7"] ;
2 -> 3 ;
4 [label="X[19] <= 0.5\ngini = 0.108\nsamples = 11629\nvalue = [669, 10960]", fillcolor="#45a3e7"] ;
3 -> 4 ;
5 [label="X[24] <= 0.5\ngini = 0.065\nsamples = 11042\nvalue = [370, 10672]", fillcolor="#40a0e6"] ;
4 -> 5 ;
6 [label="X[18] <= 0.5\ngini = 0.046\nsamples = 10472\nvalue = [248, 10224]", fillcolor="#3e9fe6"] ;
5 -> 6 ;
7 [label="X[1] <= 0.27\ngini = 0.027\nsamples = 9879\nvalue = [137, 9742]", fillcolor="#3c9ee5"] ;
6 -> 7 ;
8 [label="(...)", fillcolor="#C0C0C0"] ;
7 -> 8 ;
15 [label="(...)", fillcolor="#C0C0C0"] ;
7 -> 15 ;
22 [label="X[1] <= 0.29\ngini = 0.304\nsamples = 593\nvalue = [111, 482]", fillcolor="#67b4eb"] ;
6 -> 22 ;
23 [label="(...)", fillcolor="#C0C0C0"] ;
22 -> 23 ;
30 [label="(...)", fillcolor="#C0C0C0"] ;
22 -> 30 ;
37 [label="X[0] <= 0.5\ngini = 0.336\nsamples = 570\nvalue = [122, 448]", fillcolor="#6fb8ec"] ;
5 -> 37 ;
38 [label="X[1] <= 0.33\ngini = 0.466\nsamples = 179\nvalue = [113, 66]", fillcolor="#f4cbad"] ;
37 -> 38 ;
39 [label="(...)", fillcolor="#C0C0C0"] ;
38 -> 39 ;
44 [label="(...)", fillcolor="#C0C0C0"] ;
38 -> 44 ;
51 [label="X[1] <= 0.27\ngini = 0.045\nsamples = 391\nvalue = [9, 382]", fillcolor="#3e9fe6"] ;
37 -> 51 ;
52 [label="(...)", fillcolor="#C0C0C0"] ;
51 -> 52 ;
59 [label="(...)", fillcolor="#C0C0C0"] ;
51 -> 59 ;
60 [label="X[0] <= 0.5\ngini = 0.5\nsamples = 587\nvalue = [299, 288]", fillcolor="#fefaf8"] ;
4 -> 60 ;
61 [label="X[6] <= 0.5\ngini = 0.152\nsamples = 181\nvalue = [15, 166]", fillcolor="#4ba6e7"] ;
60 -> 61 ;
62 [label="X[1] <= 0.35\ngini = 0.103\nsamples = 166\nvalue = [9, 157]", fillcolor="#44a3e6"] ;
61 -> 62 ;
63 [label="(...)", fillcolor="#C0C0C0"] ;
62 -> 63 ;
70 [label="(...)", fillcolor="#C0C0C0"] ;
62 -> 70 ;
71 [label="X[3] <= 0.373\ngini = 0.48\nsamples = 15\nvalue = [6, 9]", fillcolor="#bddef6"] ;
61 -> 71 ;
72 [label="(...)", fillcolor="#C0C0C0"] ;
71 -> 72 ;
77 [label="(...)", fillcolor="#C0C0C0"] ;
71 -> 77 ;
78 [label="X[1] <= 0.49\ngini = 0.42\nsamples = 406\nvalue = [284, 122]", fillcolor="#f0b78e"] ;
60 -> 78 ;
79 [label="X[47] <= 0.5\ngini = 0.23\nsamples = 204\nvalue = [177, 27]", fillcolor="#e99457"] ;
78 -> 79 ;
80 [label="(...)", fillcolor="#C0C0C0"] ;
79 -> 80 ;
87 [label="(...)", fillcolor="#C0C0C0"] ;
79 -> 87 ;
94 [label="X[47] <= 0.5\ngini = 0.498\nsamples = 202\nvalue = [107, 95]", fillcolor="#fcf1e9"] ;
78 -> 94 ;
95 [label="(...)", fillcolor="#C0C0C0"] ;
94 -> 95 ;
102 [label="(...)", fillcolor="#C0C0C0"] ;
94 -> 102 ;
107 [label="X[0] <= 0.5\ngini = 0.495\nsamples = 585\nvalue = [321, 264]", fillcolor="#fae9dc"] ;
3 -> 107 ;
108 [label="X[43] <= 0.5\ngini = 0.053\nsamples = 185\nvalue = [180, 5]", fillcolor="#e6843e"] ;
107 -> 108 ;
109 [label="X[1] <= 0.48\ngini = 0.034\nsamples = 172\nvalue = [169, 3]", fillcolor="#e5833d"] ;
108 -> 109 ;
110 [label="gini = 0.0\nsamples = 103\nvalue = [103, 0]", fillcolor="#e58139"] ;
109 -> 110 ;
111 [label="X[1] <= 0.57\ngini = 0.083\nsamples = 69\nvalue = [66, 3]", fillcolor="#e68742"] ;
109 -> 111 ;
112 [label="(...)", fillcolor="#C0C0C0"] ;
111 -> 112 ;
117 [label="(...)", fillcolor="#C0C0C0"] ;
111 -> 117 ;
118 [label="X[16] <= 0.5\ngini = 0.26\nsamples = 13\nvalue = [11, 2]", fillcolor="#ea985d"] ;
108 -> 118 ;
119 [label="X[15] <= 0.5\ngini = 0.153\nsamples = 12\nvalue = [11, 1]", fillcolor="#e78c4b"] ;
118 -> 119 ;
120 [label="(...)", fillcolor="#C0C0C0"] ;
119 -> 120 ;
121 [label="(...)", fillcolor="#C0C0C0"] ;
119 -> 121 ;
124 [label="gini = 0.0\nsamples = 1\nvalue = [0, 1]", fillcolor="#399de5"] ;
118 -> 124 ;
125 [label="X[1] <= 0.25\ngini = 0.456\nsamples = 400\nvalue = [141, 259]", fillcolor="#a5d2f3"] ;
107 -> 125 ;
126 [label="X[16] <= 0.5\ngini = 0.298\nsamples = 66\nvalue = [54, 12]", fillcolor="#eb9d65"] ;
125 -> 126 ;
127 [label="X[17] <= 0.5\ngini = 0.248\nsamples = 62\nvalue = [53, 9]", fillcolor="#e9965b"] ;
126 -> 127 ;
128 [label="(...)", fillcolor="#C0C0C0"] ;
127 -> 128 ;
133 [label="(...)", fillcolor="#C0C0C0"] ;
127 -> 133 ;
140 [label="X[1] <= 0.23\ngini = 0.375\nsamples = 4\nvalue = [1, 3]", fillcolor="#7bbeee"] ;
126 -> 140 ;
141 [label="(...)", fillcolor="#C0C0C0"] ;
140 -> 141 ;
142 [label="(...)", fillcolor="#C0C0C0"] ;
140 -> 142 ;
143 [label="X[4] <= 0.5\ngini = 0.385\nsamples = 334\nvalue = [87, 247]", fillcolor="#7fc0ee"] ;
125 -> 143 ;
144 [label="X[51] <= 0.5\ngini = 0.202\nsamples = 167\nvalue = [19, 148]", fillcolor="#52aae8"] ;
143 -> 144 ;
145 [label="(...)", fillcolor="#C0C0C0"] ;
144 -> 145 ;
150 [label="(...)", fillcolor="#C0C0C0"] ;
144 -> 150 ;
155 [label="X[49] <= 0.5\ngini = 0.483\nsamples = 167\nvalue = [68, 99]", fillcolor="#c1e0f7"] ;
143 -> 155 ;
156 [label="(...)", fillcolor="#C0C0C0"] ;
155 -> 156 ;
163 [label="(...)", fillcolor="#C0C0C0"] ;
155 -> 163 ;
170 [label="X[0] <= 0.5\ngini = 0.407\nsamples = 566\nvalue = [405, 161]", fillcolor="#efb388"] ;
2 -> 170 ;
171 [label="X[1] <= 0.35\ngini = 0.273\nsamples = 178\nvalue = [29, 149]", fillcolor="#60b0ea"] ;
170 -> 171 ;
172 [label="X[43] <= 0.5\ngini = 0.479\nsamples = 63\nvalue = [25, 38]", fillcolor="#bbddf6"] ;
171 -> 172 ;
173 [label="X[1] <= 0.12\ngini = 0.452\nsamples = 58\nvalue = [20, 38]", fillcolor="#a1d1f3"] ;
172 -> 173 ;
174 [label="gini = 0.0\nsamples = 3\nvalue = [3, 0]", fillcolor="#e58139"] ;
173 -> 174 ;
175 [label="X[7] <= 0.5\ngini = 0.427\nsamples = 55\nvalue = [17, 38]", fillcolor="#92c9f1"] ;
173 -> 175 ;
176 [label="(...)", fillcolor="#C0C0C0"] ;
175 -> 176 ;
181 [label="(...)", fillcolor="#C0C0C0"] ;
175 -> 181 ;
184 [label="gini = 0.0\nsamples = 5\nvalue = [5, 0]", fillcolor="#e58139"] ;
172 -> 184 ;
185 [label="X[3] <= 0.358\ngini = 0.067\nsamples = 115\nvalue = [4, 111]", fillcolor="#40a1e6"] ;
171 -> 185 ;
186 [label="X[43] <= 0.5\ngini = 0.035\nsamples = 113\nvalue = [2, 111]", fillcolor="#3d9fe5"] ;
185 -> 186 ;
187 [label="gini = 0.0\nsamples = 108\nvalue = [0, 108]", fillcolor="#399de5"] ;
186 -> 187 ;
188 [label="X[1] <= 0.54\ngini = 0.48\nsamples = 5\nvalue = [2, 3]", fillcolor="#bddef6"] ;
186 -> 188 ;
189 [label="(...)", fillcolor="#C0C0C0"] ;
188 -> 189 ;
190 [label="(...)", fillcolor="#C0C0C0"] ;
188 -> 190 ;
191 [label="gini = 0.0\nsamples = 2\nvalue = [2, 0]", fillcolor="#e58139"] ;
185 -> 191 ;
192 [label="X[3] <= 0.403\ngini = 0.06\nsamples = 388\nvalue = [376, 12]", fillcolor="#e6853f"] ;
170 -> 192 ;
193 [label="X[12] <= 0.5\ngini = 0.051\nsamples = 380\nvalue = [370, 10]", fillcolor="#e6843e"] ;
192 -> 193 ;
194 [label="X[10] <= 0.5\ngini = 0.034\nsamples = 346\nvalue = [340, 6]", fillcolor="#e5833c"] ;
193 -> 194 ;
195 [label="X[9] <= 0.5\ngini = 0.019\nsamples = 309\nvalue = [306, 3]", fillcolor="#e5823b"] ;
194 -> 195 ;
196 [label="(...)", fillcolor="#C0C0C0"] ;
195 -> 196 ;
201 [label="(...)", fillcolor="#C0C0C0"] ;
195 -> 201 ;
206 [label="X[2] <= 0.51\ngini = 0.149\nsamples = 37\nvalue = [34, 3]", fillcolor="#e78c4a"] ;
194 -> 206 ;
207 [label="(...)", fillcolor="#C0C0C0"] ;
206 -> 207 ;
208 [label="(...)", fillcolor="#C0C0C0"] ;
206 -> 208 ;
213 [label="X[1] <= 0.61\ngini = 0.208\nsamples = 34\nvalue = [30, 4]", fillcolor="#e89253"] ;
193 -> 213 ;
214 [label="gini = 0.0\nsamples = 1\nvalue = [0, 1]", fillcolor="#399de5"] ;
213 -> 214 ;
215 [label="X[47] <= 0.5\ngini = 0.165\nsamples = 33\nvalue = [30, 3]", fillcolor="#e88e4d"] ;
213 -> 215 ;
216 [label="(...)", fillcolor="#C0C0C0"] ;
215 -> 216 ;
221 [label="(...)", fillcolor="#C0C0C0"] ;
215 -> 221 ;
226 [label="X[9] <= 0.5\ngini = 0.375\nsamples = 8\nvalue = [6, 2]", fillcolor="#eeab7b"] ;
192 -> 226 ;
227 [label="gini = 0.0\nsamples = 5\nvalue = [5, 0]", fillcolor="#e58139"] ;
226 -> 227 ;
228 [label="X[1] <= 0.47\ngini = 0.444\nsamples = 3\nvalue = [1, 2]", fillcolor="#9ccef2"] ;
226 -> 228 ;
229 [label="gini = 0.0\nsamples = 1\nvalue = [1, 0]", fillcolor="#e58139"] ;
228 -> 229 ;
230 [label="gini = 0.0\nsamples = 2\nvalue = [0, 2]", fillcolor="#399de5"] ;
228 -> 230 ;
231 [label="X[0] <= 0.5\ngini = 0.326\nsamples = 560\nvalue = [445, 115]", fillcolor="#eca26c"] ;
1 -> 231 ;
232 [label="X[1] <= 0.33\ngini = 0.479\nsamples = 189\nvalue = [75, 114]", fillcolor="#bbddf6"] ;
231 -> 232 ;
233 [label="X[42] <= 0.5\ngini = 0.305\nsamples = 64\nvalue = [52, 12]", fillcolor="#eb9e67"] ;
232 -> 233 ;
234 [label="X[17] <= 0.5\ngini = 0.145\nsamples = 38\nvalue = [35, 3]", fillcolor="#e78c4a"] ;
233 -> 234 ;
235 [label="gini = 0.0\nsamples = 31\nvalue = [31, 0]", fillcolor="#e58139"] ;
234 -> 235 ;
236 [label="X[1] <= 0.27\ngini = 0.49\nsamples = 7\nvalue = [4, 3]", fillcolor="#f8e0ce"] ;
234 -> 236 ;
237 [label="X[2] <= 0.54\ngini = 0.444\nsamples = 6\nvalue = [4, 2]", fillcolor="#f2c09c"] ;
236 -> 237 ;
238 [label="(...)", fillcolor="#C0C0C0"] ;
237 -> 238 ;
239 [label="(...)", fillcolor="#C0C0C0"] ;
237 -> 239 ;
244 [label="gini = 0.0\nsamples = 1\nvalue = [0, 1]", fillcolor="#399de5"] ;
236 -> 244 ;
245 [label="X[5] <= 0.5\ngini = 0.453\nsamples = 26\nvalue = [17, 9]", fillcolor="#f3c4a2"] ;
233 -> 245 ;
246 [label="X[15] <= 0.5\ngini = 0.245\nsamples = 14\nvalue = [12, 2]", fillcolor="#e9965a"] ;
245 -> 246 ;
247 [label="X[1] <= 0.27\ngini = 0.142\nsamples = 13\nvalue = [12, 1]", fillcolor="#e78c49"] ;
246 -> 247 ;
248 [label="(...)", fillcolor="#C0C0C0"] ;
247 -> 248 ;
249 [label="(...)", fillcolor="#C0C0C0"] ;
247 -> 249 ;
252 [label="gini = 0.0\nsamples = 1\nvalue = [0, 1]", fillcolor="#399de5"] ;
246 -> 252 ;
253 [label="X[6] <= 0.5\ngini = 0.486\nsamples = 12\nvalue = [5, 7]", fillcolor="#c6e3f8"] ;
245 -> 253 ;
254 [label="X[3] <= 0.209\ngini = 0.494\nsamples = 9\nvalue = [5, 4]", fillcolor="#fae6d7"] ;
253 -> 254 ;
255 [label="(...)", fillcolor="#C0C0C0"] ;
254 -> 255 ;
260 [label="(...)", fillcolor="#C0C0C0"] ;
254 -> 260 ;
261 [label="gini = 0.0\nsamples = 3\nvalue = [0, 3]", fillcolor="#399de5"] ;
253 -> 261 ;
262 [label="X[3] <= 0.291\ngini = 0.3\nsamples = 125\nvalue = [23, 102]", fillcolor="#66b3eb"] ;
232 -> 262 ;
263 [label="X[1] <= 0.49\ngini = 0.248\nsamples = 117\nvalue = [17, 100]", fillcolor="#5baee9"] ;
262 -> 263 ;
264 [label="X[4] <= 0.5\ngini = 0.427\nsamples = 42\nvalue = [13, 29]", fillcolor="#92c9f1"] ;
263 -> 264 ;
265 [label="X[43] <= 0.5\ngini = 0.165\nsamples = 22\nvalue = [2, 20]", fillcolor="#4da7e8"] ;
264 -> 265 ;
266 [label="(...)", fillcolor="#C0C0C0"] ;
265 -> 266 ;
267 [label="(...)", fillcolor="#C0C0C0"] ;
265 -> 267 ;
268 [label="X[49] <= 0.5\ngini = 0.495\nsamples = 20\nvalue = [11, 9]", fillcolor="#fae8db"] ;
264 -> 268 ;
269 [label="(...)", fillcolor="#C0C0C0"] ;
268 -> 269 ;
272 [label="(...)", fillcolor="#C0C0C0"] ;
268 -> 272 ;
277 [label="X[10] <= 0.5\ngini = 0.101\nsamples = 75\nvalue = [4, 71]", fillcolor="#44a3e6"] ;
263 -> 277 ;
278 [label="X[11] <= 0.5\ngini = 0.06\nsamples = 65\nvalue = [2, 63]", fillcolor="#3fa0e6"] ;
277 -> 278 ;
279 [label="(...)", fillcolor="#C0C0C0"] ;
278 -> 279 ;
280 [label="(...)", fillcolor="#C0C0C0"] ;
278 -> 280 ;
285 [label="X[3] <= 0.209\ngini = 0.32\nsamples = 10\nvalue = [2, 8]", fillcolor="#6ab6ec"] ;
277 -> 285 ;
286 [label="(...)", fillcolor="#C0C0C0"] ;
285 -> 286 ;
289 [label="(...)", fillcolor="#C0C0C0"] ;
285 -> 289 ;
290 [label="X[15] <= 0.5\ngini = 0.375\nsamples = 8\nvalue = [6, 2]", fillcolor="#eeab7b"] ;
262 -> 290 ;
291 [label="gini = 0.0\nsamples = 6\nvalue = [6, 0]", fillcolor="#e58139"] ;
290 -> 291 ;
292 [label="gini = 0.0\nsamples = 2\nvalue = [0, 2]", fillcolor="#399de5"] ;
290 -> 292 ;
293 [label="X[9] <= 0.5\ngini = 0.005\nsamples = 371\nvalue = [370, 1]", fillcolor="#e5813a"] ;
231 -> 293 ;
294 [label="gini = 0.0\nsamples = 337\nvalue = [337, 0]", fillcolor="#e58139"] ;
293 -> 294 ;
295 [label="X[1] <= 0.52\ngini = 0.057\nsamples = 34\nvalue = [33, 1]", fillcolor="#e6853f"] ;
293 -> 295 ;
296 [label="gini = 0.0\nsamples = 28\nvalue = [28, 0]", fillcolor="#e58139"] ;
295 -> 296 ;
297 [label="X[2] <= 0.855\ngini = 0.278\nsamples = 6\nvalue = [5, 1]", fillcolor="#ea9a61"] ;
295 -> 297 ;
298 [label="gini = 0.0\nsamples = 4\nvalue = [4, 0]", fillcolor="#e58139"] ;
297 -> 298 ;
299 [label="X[45] <= 0.5\ngini = 0.5\nsamples = 2\nvalue = [1, 1]", fillcolor="#ffffff"] ;
297 -> 299 ;
300 [label="gini = 0.0\nsamples = 1\nvalue = [0, 1]", fillcolor="#399de5"] ;
299 -> 300 ;
301 [label="gini = 0.0\nsamples = 1\nvalue = [1, 0]", fillcolor="#e58139"] ;
299 -> 301 ;
302 [label="X[42] <= 0.5\ngini = 0.021\nsamples = 563\nvalue = [557, 6]", fillcolor="#e5823b"] ;
0 -> 302 [labeldistance=2.5, labelangle=-45, headlabel="False"] ;
303 [label="gini = 0.0\nsamples = 479\nvalue = [479, 0]", fillcolor="#e58139"] ;
302 -> 303 ;
304 [label="X[14] <= 0.5\ngini = 0.133\nsamples = 84\nvalue = [78, 6]", fillcolor="#e78b48"] ;
302 -> 304 ;
305 [label="X[3] <= 0.179\ngini = 0.1\nsamples = 76\nvalue = [72, 4]", fillcolor="#e68844"] ;
304 -> 305 ;
306 [label="X[3] <= 0.119\ngini = 0.142\nsamples = 52\nvalue = [48, 4]", fillcolor="#e78c49"] ;
305 -> 306 ;
307 [label="X[10] <= 0.5\ngini = 0.057\nsamples = 34\nvalue = [33, 1]", fillcolor="#e6853f"] ;
306 -> 307 ;
308 [label="gini = 0.0\nsamples = 28\nvalue = [28, 0]", fillcolor="#e58139"] ;
307 -> 308 ;
309 [label="X[1] <= 0.56\ngini = 0.278\nsamples = 6\nvalue = [5, 1]", fillcolor="#ea9a61"] ;
307 -> 309 ;
310 [label="gini = 0.0\nsamples = 5\nvalue = [5, 0]", fillcolor="#e58139"] ;
309 -> 310 ;
311 [label="gini = 0.0\nsamples = 1\nvalue = [0, 1]", fillcolor="#399de5"] ;
309 -> 311 ;
312 [label="X[15] <= 0.5\ngini = 0.278\nsamples = 18\nvalue = [15, 3]", fillcolor="#ea9a61"] ;
306 -> 312 ;
313 [label="X[2] <= 0.655\ngini = 0.208\nsamples = 17\nvalue = [15, 2]", fillcolor="#e89253"] ;
312 -> 313 ;
314 [label="X[8] <= 0.5\ngini = 0.444\nsamples = 6\nvalue = [4, 2]", fillcolor="#f2c09c"] ;
313 -> 314 ;
315 [label="(...)", fillcolor="#C0C0C0"] ;
314 -> 315 ;
318 [label="(...)", fillcolor="#C0C0C0"] ;
314 -> 318 ;
319 [label="gini = 0.0\nsamples = 11\nvalue = [11, 0]", fillcolor="#e58139"] ;
313 -> 319 ;
320 [label="gini = 0.0\nsamples = 1\nvalue = [0, 1]", fillcolor="#399de5"] ;
312 -> 320 ;
321 [label="gini = 0.0\nsamples = 24\nvalue = [24, 0]", fillcolor="#e58139"] ;
305 -> 321 ;
322 [label="X[3] <= 0.239\ngini = 0.375\nsamples = 8\nvalue = [6, 2]", fillcolor="#eeab7b"] ;
304 -> 322 ;
323 [label="X[1] <= 0.65\ngini = 0.245\nsamples = 7\nvalue = [6, 1]", fillcolor="#e9965a"] ;
322 -> 323 ;
324 [label="gini = 0.0\nsamples = 6\nvalue = [6, 0]", fillcolor="#e58139"] ;
323 -> 324 ;
325 [label="gini = 0.0\nsamples = 1\nvalue = [0, 1]", fillcolor="#399de5"] ;
323 -> 325 ;
326 [label="gini = 0.0\nsamples = 1\nvalue = [0, 1]", fillcolor="#399de5"] ;
322 -> 326 ;
}